svm_type c_svc
kernel_type linear
nr_class 2
total_sv 265
rho -0.15473647720954356
label -1 1
nr_sv 133 132
SV
0.04525258860566008 10:1.0 21:1.0 109:1.0 120:1.0 257:1.0 282:1.0 348:1.0 349:1.0 351:1.0 374:1.0 375:1.0 376:1.0 377:1.0 378:1.0 379:1.0 
0.00571334544921605 10:1.0 53:1.0 117:1.0 201:1.0 208:1.0 210:1.0 211:1.0 273:1.0 367:1.0 369:1.0 370:1.0 389:1.0 390:1.0 391:1.0 392:1.0 
0.010131577922189742 10:1.0 11:1.0 12:1.0 34:1.0 35:1.0 112:1.0 117:1.0 123:1.0 204:1.0 206:1.0 207:1.0 453:1.0 454:1.0 455:1.0 456:1.0 
0.0069639016741643465 2:1.0 4:1.0 5:1.0 10:1.0 34:1.0 35:1.0 117:1.0 123:1.0 196:1.0 201:1.0 461:1.0 462:1.0 463:1.0 464:1.0 465:1.0 
0.005898768982768762 10:1.0 13:1.0 17:1.0 18:1.0 30:1.0 31:1.0 34:1.0 35:1.0 106:1.0 112:1.0 294:1.0 543:1.0 544:1.0 545:1.0 546:1.0 
0.00554591593811781 6:1.0 10:1.0 21:1.0 41:1.0 42:1.0 61:1.0 62:1.0 120:1.0 223:1.0 224:1.0 264:1.0 265:1.0 561:1.0 562:1.0 563:1.0 
0.011717773817679886 10:1.0 17:1.0 18:1.0 30:1.0 31:1.0 53:1.0 78:1.0 79:1.0 106:1.0 112:1.0 117:1.0 158:1.0 169:1.0 2057:1.0 2058:1.0 
6.400110766892388E-4 10:1.0 17:1.0 18:1.0 30:1.0 31:1.0 51:1.0 52:1.0 106:1.0 112:1.0 117:1.0 123:1.0 165:1.0 2061:1.0 2062:1.0 2063:1.0 
0.0056112015942642365 10:1.0 25:1.0 204:1.0 208:1.0 255:1.0 273:1.0 287:1.0 288:1.0 298:1.0 299:1.0 331:1.0 1001:1.0 1002:1.0 2076:1.0 2077:1.0 
0.014715484408323062 10:1.0 13:1.0 19:1.0 25:1.0 268:1.0 294:1.0 355:1.0 359:1.0 1020:1.0 1021:1.0 1026:1.0 1027:1.0 2084:1.0 2085:1.0 2086:1.0 
0.012024031480951033 10:1.0 43:1.0 114:1.0 201:1.0 268:1.0 270:1.0 271:1.0 359:1.0 361:1.0 362:1.0 365:1.0 386:1.0 1060:1.0 1061:1.0 2096:1.0 
0.023963522782485217 10:1.0 53:1.0 117:1.0 204:1.0 273:1.0 277:1.0 278:1.0 333:1.0 334:1.0 366:1.0 367:1.0 369:1.0 370:1.0 390:1.0 2097:1.0 
0.056634502444406945 10:1.0 106:1.0 120:1.0 208:1.0 280:1.0 281:1.0 282:1.0 341:1.0 342:1.0 372:1.0 375:1.0 377:1.0 378:1.0 2098:1.0 2099:1.0 
0.010079044856959958 10:1.0 11:1.0 12:1.0 34:1.0 35:1.0 112:1.0 117:1.0 123:1.0 204:1.0 206:1.0 207:1.0 454:1.0 456:1.0 2120:1.0 2121:1.0 
0.0058863404780904495 10:1.0 13:1.0 17:1.0 18:1.0 30:1.0 31:1.0 34:1.0 35:1.0 106:1.0 112:1.0 294:1.0 543:1.0 544:1.0 2130:1.0 2131:1.0 
0.005569967484495461 6:1.0 10:1.0 21:1.0 41:1.0 42:1.0 61:1.0 62:1.0 120:1.0 223:1.0 224:1.0 264:1.0 265:1.0 561:1.0 563:1.0 2140:1.0 
0.001349294850270985 6:1.0 10:1.0 36:1.0 114:1.0 257:1.0 261:1.0 268:1.0 282:1.0 292:1.0 293:1.0 317:1.0 2175:1.0 2291:1.0 2292:1.0 2293:1.0 
0.05150253787361356 10:1.0 15:1.0 117:1.0 201:1.0 262:1.0 273:1.0 289:1.0 298:1.0 299:1.0 323:1.0 2177:1.0 2294:1.0 2295:1.0 2296:1.0 2297:1.0 
0.007530395653806935 6:1.0 10:1.0 32:1.0 123:1.0 208:1.0 273:1.0 289:1.0 333:1.0 334:1.0 336:1.0 366:1.0 2180:1.0 2302:1.0 2303:1.0 2304:1.0 
0.018586092237847643 10:1.0 17:1.0 18:1.0 53:1.0 117:1.0 208:1.0 368:1.0 369:1.0 370:1.0 390:1.0 482:1.0 483:1.0 661:1.0 662:1.0 2107:1.0 
0.005489682734391304 10:1.0 11:1.0 12:1.0 34:1.0 35:1.0 112:1.0 117:1.0 123:1.0 204:1.0 206:1.0 207:1.0 456:1.0 2124:1.0 2125:1.0 2312:1.0 
0.006938138816305188 2:1.0 4:1.0 5:1.0 10:1.0 34:1.0 35:1.0 117:1.0 123:1.0 196:1.0 201:1.0 461:1.0 464:1.0 465:1.0 2127:1.0 2314:1.0 
0.005859268476263928 10:1.0 13:1.0 17:1.0 18:1.0 30:1.0 31:1.0 34:1.0 35:1.0 106:1.0 112:1.0 294:1.0 543:1.0 544:1.0 2319:1.0 2320:1.0 
0.005560418379150537 6:1.0 10:1.0 21:1.0 41:1.0 42:1.0 61:1.0 62:1.0 120:1.0 223:1.0 224:1.0 264:1.0 265:1.0 561:1.0 563:1.0 2329:1.0 
1.1036205262739022E-4 10:1.0 15:1.0 17:1.0 18:1.0 19:1.0 30:1.0 31:1.0 43:1.0 84:1.0 85:1.0 117:1.0 143:1.0 144:1.0 145:1.0 146:1.0 
0.0029227088429609194 6:1.0 10:1.0 21:1.0 27:1.0 28:1.0 41:1.0 42:1.0 48:1.0 49:1.0 53:1.0 120:1.0 147:1.0 148:1.0 149:1.0 150:1.0 
2.7090981880920057E-4 10:1.0 23:1.0 24:1.0 25:1.0 53:1.0 262:1.0 264:1.0 265:1.0 273:1.0 274:1.0 275:1.0 276:1.0 277:1.0 278:1.0 279:1.0 
3.9184868274886393E-4 10:1.0 34:1.0 35:1.0 36:1.0 201:1.0 240:1.0 268:1.0 270:1.0 271:1.0 280:1.0 281:1.0 282:1.0 283:1.0 284:1.0 285:1.0 
5.691749513536552E-4 10:1.0 45:1.0 46:1.0 204:1.0 242:1.0 264:1.0 265:1.0 273:1.0 277:1.0 278:1.0 286:1.0 287:1.0 288:1.0 289:1.0 290:1.0 
0.005722672051367554 10:1.0 53:1.0 117:1.0 201:1.0 208:1.0 210:1.0 211:1.0 273:1.0 367:1.0 369:1.0 370:1.0 390:1.0 391:1.0 392:1.0 2482:1.0 
0.01026544749477515 2:1.0 4:1.0 5:1.0 10:1.0 34:1.0 35:1.0 117:1.0 123:1.0 196:1.0 201:1.0 382:1.0 461:1.0 464:1.0 465:1.0 2489:1.0 
0.005880092600553777 10:1.0 13:1.0 17:1.0 18:1.0 30:1.0 31:1.0 34:1.0 35:1.0 106:1.0 112:1.0 294:1.0 543:1.0 544:1.0 2494:1.0 2495:1.0 
0.005533834030169423 6:1.0 10:1.0 21:1.0 41:1.0 42:1.0 61:1.0 62:1.0 120:1.0 223:1.0 224:1.0 264:1.0 265:1.0 561:1.0 563:1.0 2504:1.0 
6.968050453569947E-5 10:1.0 19:1.0 34:1.0 35:1.0 36:1.0 268:1.0 282:1.0 487:1.0 488:1.0 661:1.0 662:1.0 663:1.0 664:1.0 665:1.0 666:1.0 
4.999427057715876E-5 10:1.0 53:1.0 262:1.0 264:1.0 265:1.0 268:1.0 280:1.0 281:1.0 282:1.0 283:1.0 697:1.0 698:1.0 699:1.0 700:1.0 701:1.0 
5.9489532615732144E-5 1:1.0 2:1.0 3:1.0 4:1.0 5:1.0 6:1.0 7:1.0 8:1.0 9:1.0 
1.0454742906066808E-4 10:1.0 15:1.0 17:1.0 18:1.0 19:1.0 30:1.0 31:1.0 43:1.0 70:1.0 84:1.0 85:1.0 88:1.0 117:1.0 118:1.0 119:1.0 
0.011724541847923342 10:1.0 17:1.0 18:1.0 30:1.0 31:1.0 53:1.0 78:1.0 79:1.0 106:1.0 112:1.0 117:1.0 169:1.0 2733:1.0 2736:1.0 2737:1.0 
0.028383801900240577 10:1.0 15:1.0 17:1.0 18:1.0 19:1.0 51:1.0 52:1.0 66:1.0 67:1.0 117:1.0 123:1.0 2745:1.0 2750:1.0 2751:1.0 2752:1.0 
3.981528630044399E-5 6:1.0 10:1.0 21:1.0 27:1.0 28:1.0 41:1.0 42:1.0 48:1.0 49:1.0 53:1.0 90:1.0 120:1.0 175:1.0 2270:1.0 2271:1.0 
0.005428363454397635 10:1.0 11:1.0 12:1.0 34:1.0 35:1.0 112:1.0 117:1.0 123:1.0 204:1.0 206:1.0 207:1.0 456:1.0 2805:1.0 2806:1.0 2807:1.0 
0.004622520332574716 2:1.0 4:1.0 5:1.0 10:1.0 34:1.0 35:1.0 117:1.0 123:1.0 196:1.0 201:1.0 461:1.0 464:1.0 465:1.0 2810:1.0 2811:1.0 
0.00586460875422797 10:1.0 13:1.0 17:1.0 18:1.0 30:1.0 31:1.0 34:1.0 35:1.0 106:1.0 112:1.0 294:1.0 543:1.0 544:1.0 2816:1.0 2817:1.0 
0.0055266703362421 6:1.0 10:1.0 21:1.0 41:1.0 42:1.0 61:1.0 62:1.0 120:1.0 223:1.0 224:1.0 264:1.0 265:1.0 561:1.0 563:1.0 2826:1.0 
0.013258281020624383 10:1.0 13:1.0 17:1.0 18:1.0 36:1.0 208:1.0 261:1.0 292:1.0 293:1.0 1018:1.0 1019:1.0 1020:1.0 1021:1.0 2167:1.0 2452:1.0 
0.01043780431241908 2:1.0 10:1.0 36:1.0 51:1.0 52:1.0 208:1.0 257:1.0 270:1.0 271:1.0 1046:1.0 1047:1.0 2081:1.0 2175:1.0 2467:1.0 2468:1.0 
0.011849035006588758 10:1.0 13:1.0 25:1.0 257:1.0 268:1.0 280:1.0 281:1.0 401:1.0 402:1.0 1060:1.0 1061:1.0 2088:1.0 2179:1.0 2472:1.0 3045:1.0 
0.013028667406103587 10:1.0 106:1.0 107:1.0 262:1.0 273:1.0 289:1.0 298:1.0 299:1.0 406:1.0 407:1.0 418:1.0 419:1.0 2182:1.0 3049:1.0 3050:1.0 
0.003695254013528231 10:1.0 109:1.0 110:1.0 264:1.0 265:1.0 268:1.0 282:1.0 294:1.0 410:1.0 411:1.0 426:1.0 427:1.0 2183:1.0 3051:1.0 3052:1.0 
0.06012145222282682 10:1.0 21:1.0 109:1.0 120:1.0 257:1.0 282:1.0 348:1.0 349:1.0 351:1.0 374:1.0 375:1.0 377:1.0 378:1.0 511:1.0 3064:1.0 
0.004615603860900417 2:1.0 4:1.0 5:1.0 10:1.0 34:1.0 35:1.0 117:1.0 123:1.0 196:1.0 201:1.0 461:1.0 464:1.0 465:1.0 2810:1.0 3072:1.0 
0.005878603903273458 10:1.0 13:1.0 17:1.0 18:1.0 30:1.0 31:1.0 34:1.0 35:1.0 106:1.0 112:1.0 294:1.0 543:1.0 544:1.0 3075:1.0 3076:1.0 
0.005571080945766809 6:1.0 10:1.0 21:1.0 41:1.0 42:1.0 61:1.0 62:1.0 120:1.0 223:1.0 224:1.0 264:1.0 265:1.0 561:1.0 563:1.0 3085:1.0 
0.007294631934844952 10:1.0 11:1.0 12:1.0 34:1.0 35:1.0 112:1.0 117:1.0 123:1.0 204:1.0 206:1.0 207:1.0 456:1.0 3183:1.0 3184:1.0 3185:1.0 
0.006931400291689885 2:1.0 4:1.0 5:1.0 10:1.0 34:1.0 35:1.0 117:1.0 123:1.0 196:1.0 201:1.0 461:1.0 464:1.0 465:1.0 3188:1.0 3189:1.0 
0.005878961126182381 10:1.0 13:1.0 17:1.0 18:1.0 30:1.0 31:1.0 34:1.0 35:1.0 106:1.0 112:1.0 294:1.0 543:1.0 544:1.0 3194:1.0 3195:1.0 
0.005567824850734636 6:1.0 10:1.0 21:1.0 41:1.0 42:1.0 61:1.0 62:1.0 120:1.0 223:1.0 224:1.0 264:1.0 265:1.0 561:1.0 563:1.0 3204:1.0 
0.011280956857652702 8:1.0 9:1.0 10:1.0 32:1.0 34:1.0 35:1.0 36:1.0 109:1.0 114:1.0 277:1.0 278:1.0 438:1.0 598:1.0 599:1.0 3207:1.0 
0.004260589365137342 10:1.0 17:1.0 18:1.0 19:1.0 43:1.0 45:1.0 46:1.0 112:1.0 117:1.0 280:1.0 281:1.0 443:1.0 601:1.0 603:1.0 3208:1.0 
0.0011248305871669768 10:1.0 15:1.0 17:1.0 18:1.0 19:1.0 30:1.0 31:1.0 117:1.0 123:1.0 195:1.0 292:1.0 293:1.0 454:1.0 608:1.0 3210:1.0 
0.003542363049039954 10:1.0 13:1.0 25:1.0 36:1.0 257:1.0 268:1.0 270:1.0 271:1.0 410:1.0 411:1.0 2472:1.0 2617:1.0 3283:1.0 3284:1.0 3285:1.0 
3.018408556651279E-4 10:1.0 25:1.0 36:1.0 201:1.0 262:1.0 273:1.0 277:1.0 278:1.0 418:1.0 419:1.0 2026:1.0 2475:1.0 3286:1.0 3287:1.0 3288:1.0 
0.013755689337333529 6:1.0 10:1.0 208:1.0 273:1.0 287:1.0 288:1.0 289:1.0 333:1.0 334:1.0 366:1.0 434:1.0 435:1.0 2030:1.0 3291:1.0 3292:1.0 
0.006230977735941202 10:1.0 53:1.0 117:1.0 201:1.0 208:1.0 210:1.0 211:1.0 273:1.0 367:1.0 369:1.0 370:1.0 390:1.0 391:1.0 392:1.0 3301:1.0 
0.007312024489917571 10:1.0 11:1.0 12:1.0 34:1.0 35:1.0 112:1.0 117:1.0 123:1.0 204:1.0 206:1.0 207:1.0 456:1.0 472:1.0 2106:1.0 3306:1.0 
0.010274355582600881 2:1.0 4:1.0 5:1.0 10:1.0 34:1.0 35:1.0 117:1.0 123:1.0 196:1.0 201:1.0 461:1.0 464:1.0 465:1.0 2111:1.0 3308:1.0 
0.014820262819107918 2:1.0 10:1.0 34:1.0 35:1.0 36:1.0 117:1.0 206:1.0 207:1.0 262:1.0 277:1.0 278:1.0 524:1.0 526:1.0 527:1.0 3315:1.0 
0.02123942334296808 10:1.0 13:1.0 45:1.0 46:1.0 120:1.0 201:1.0 210:1.0 211:1.0 268:1.0 280:1.0 281:1.0 528:1.0 530:1.0 531:1.0 3316:1.0 
0.006208327591103647 10:1.0 13:1.0 17:1.0 18:1.0 30:1.0 31:1.0 34:1.0 35:1.0 106:1.0 112:1.0 294:1.0 543:1.0 544:1.0 3320:1.0 3321:1.0 
0.005527946928776226 6:1.0 10:1.0 21:1.0 41:1.0 42:1.0 61:1.0 62:1.0 120:1.0 223:1.0 224:1.0 264:1.0 265:1.0 561:1.0 563:1.0 3330:1.0 
0.0021102871200696714 6:1.0 8:1.0 9:1.0 10:1.0 21:1.0 27:1.0 28:1.0 41:1.0 42:1.0 43:1.0 274:1.0 298:1.0 299:1.0 3583:1.0 3584:1.0 
0.002659797609622099 6:1.0 10:1.0 21:1.0 27:1.0 28:1.0 41:1.0 42:1.0 48:1.0 49:1.0 53:1.0 90:1.0 120:1.0 175:1.0 3614:1.0 3615:1.0 
3.050338645477855E-4 6:1.0 10:1.0 32:1.0 51:1.0 52:1.0 53:1.0 63:1.0 64:1.0 106:1.0 107:1.0 114:1.0 115:1.0 2764:1.0 3624:1.0 3625:1.0 
0.011512148920133126 10:1.0 17:1.0 18:1.0 19:1.0 21:1.0 53:1.0 73:1.0 74:1.0 112:1.0 113:1.0 120:1.0 121:1.0 3628:1.0 3629:1.0 3630:1.0 
0.00895712422761328 10:1.0 15:1.0 17:1.0 18:1.0 19:1.0 30:1.0 31:1.0 43:1.0 84:1.0 85:1.0 117:1.0 118:1.0 3633:1.0 3634:1.0 3635:1.0 
0.034898474319282134 2:1.0 4:1.0 5:1.0 10:1.0 120:1.0 204:1.0 282:1.0 375:1.0 377:1.0 378:1.0 393:1.0 395:1.0 396:1.0 397:1.0 3316:1.0 
0.00549337641267663 10:1.0 11:1.0 12:1.0 34:1.0 35:1.0 112:1.0 117:1.0 123:1.0 204:1.0 206:1.0 207:1.0 456:1.0 2067:1.0 2125:1.0 3672:1.0 
0.007185537703215469 2:1.0 4:1.0 5:1.0 10:1.0 34:1.0 35:1.0 117:1.0 123:1.0 196:1.0 201:1.0 461:1.0 464:1.0 465:1.0 2069:1.0 3674:1.0 
0.0061801716517228085 10:1.0 13:1.0 17:1.0 18:1.0 30:1.0 31:1.0 34:1.0 35:1.0 106:1.0 112:1.0 294:1.0 543:1.0 544:1.0 3677:1.0 3678:1.0 
0.006155312298480013 6:1.0 10:1.0 21:1.0 41:1.0 42:1.0 61:1.0 62:1.0 120:1.0 223:1.0 224:1.0 264:1.0 265:1.0 561:1.0 563:1.0 3687:1.0 
1.0 10:1.0 34:1.0 35:1.0 53:1.0 117:1.0 262:1.0 264:1.0 265:1.0 273:1.0 274:1.0 276:1.0 277:1.0 278:1.0 279:1.0 3693:1.0 
0.004352076799370034 10:1.0 123:1.0 204:1.0 242:1.0 264:1.0 265:1.0 273:1.0 277:1.0 278:1.0 286:1.0 287:1.0 288:1.0 289:1.0 290:1.0 3695:1.0 
0.009424080964415237 2:1.0 10:1.0 246:1.0 257:1.0 262:1.0 277:1.0 278:1.0 287:1.0 288:1.0 289:1.0 297:1.0 298:1.0 299:1.0 902:1.0 903:1.0 
0.02345782278260362 10:1.0 25:1.0 204:1.0 255:1.0 268:1.0 273:1.0 287:1.0 288:1.0 298:1.0 299:1.0 333:1.0 334:1.0 907:1.0 909:1.0 3655:1.0 
0.008026651736237476 10:1.0 36:1.0 106:1.0 208:1.0 261:1.0 273:1.0 282:1.0 292:1.0 293:1.0 341:1.0 342:1.0 910:1.0 911:1.0 3656:1.0 3657:1.0 
0.04543576539297245 10:1.0 21:1.0 109:1.0 120:1.0 257:1.0 282:1.0 348:1.0 349:1.0 351:1.0 374:1.0 375:1.0 377:1.0 378:1.0 3312:1.0 3666:1.0 
0.01300614964768645 10:1.0 43:1.0 114:1.0 257:1.0 262:1.0 268:1.0 294:1.0 361:1.0 362:1.0 365:1.0 386:1.0 387:1.0 579:1.0 806:1.0 3314:1.0 
0.05252528329575934 8:1.0 9:1.0 10:1.0 53:1.0 117:1.0 262:1.0 268:1.0 273:1.0 367:1.0 369:1.0 370:1.0 390:1.0 581:1.0 807:1.0 3315:1.0 
0.15189116502174504 1:1.0 2:1.0 3:1.0 4:1.0 5:1.0 6:1.0 7:1.0 8:1.0 9:1.0 
0.018957186723337686 10:1.0 15:1.0 17:1.0 18:1.0 19:1.0 30:1.0 31:1.0 32:1.0 33:1.0 34:1.0 35:1.0 36:1.0 37:1.0 38:1.0 39:1.0 
0.008678089290185329 10:1.0 15:1.0 17:1.0 18:1.0 19:1.0 30:1.0 31:1.0 43:1.0 70:1.0 84:1.0 85:1.0 88:1.0 117:1.0 118:1.0 119:1.0 
6.760679062327448E-4 6:1.0 10:1.0 21:1.0 27:1.0 28:1.0 41:1.0 42:1.0 48:1.0 49:1.0 53:1.0 72:1.0 90:1.0 120:1.0 121:1.0 122:1.0 
7.529354471671854E-4 10:1.0 15:1.0 17:1.0 18:1.0 19:1.0 30:1.0 31:1.0 43:1.0 84:1.0 85:1.0 117:1.0 144:1.0 145:1.0 146:1.0 852:1.0 
0.003555642463092046 6:1.0 10:1.0 21:1.0 27:1.0 28:1.0 41:1.0 42:1.0 48:1.0 49:1.0 53:1.0 120:1.0 147:1.0 149:1.0 150:1.0 856:1.0 
0.011878765507871277 10:1.0 17:1.0 18:1.0 30:1.0 31:1.0 53:1.0 78:1.0 79:1.0 106:1.0 112:1.0 117:1.0 169:1.0 2190:1.0 2191:1.0 2192:1.0 
6.721058989278578E-4 10:1.0 17:1.0 18:1.0 30:1.0 31:1.0 51:1.0 52:1.0 106:1.0 112:1.0 117:1.0 123:1.0 2196:1.0 2197:1.0 2198:1.0 2199:1.0 
0.006955677131589741 10:1.0 15:1.0 19:1.0 51:1.0 52:1.0 66:1.0 67:1.0 108:1.0 117:1.0 123:1.0 270:1.0 271:1.0 2208:1.0 2209:1.0 2210:1.0 
0.0026191498910724718 6:1.0 10:1.0 21:1.0 27:1.0 28:1.0 41:1.0 42:1.0 48:1.0 49:1.0 53:1.0 90:1.0 120:1.0 175:1.0 2270:1.0 2271:1.0 
0.0028893642099279823 6:1.0 10:1.0 21:1.0 27:1.0 28:1.0 41:1.0 42:1.0 48:1.0 49:1.0 53:1.0 90:1.0 120:1.0 174:1.0 175:1.0 176:1.0 
0.0459837630332073 10:1.0 15:1.0 17:1.0 18:1.0 19:1.0 32:1.0 34:1.0 35:1.0 36:1.0 146:1.0 197:1.0 225:1.0 226:1.0 227:1.0 228:1.0 
0.008659450679222512 10:1.0 11:1.0 12:1.0 13:1.0 43:1.0 61:1.0 62:1.0 257:1.0 266:1.0 267:1.0 268:1.0 269:1.0 270:1.0 271:1.0 272:1.0 
0.5673259678971402 10:1.0 23:1.0 24:1.0 25:1.0 53:1.0 262:1.0 264:1.0 265:1.0 273:1.0 274:1.0 275:1.0 276:1.0 277:1.0 278:1.0 279:1.0 
0.07621948464499967 10:1.0 34:1.0 35:1.0 36:1.0 201:1.0 240:1.0 268:1.0 270:1.0 271:1.0 280:1.0 281:1.0 282:1.0 283:1.0 284:1.0 285:1.0 
0.0224380707601812 10:1.0 45:1.0 46:1.0 204:1.0 242:1.0 264:1.0 265:1.0 273:1.0 277:1.0 278:1.0 286:1.0 287:1.0 288:1.0 289:1.0 290:1.0 
0.0027330723323467747 2:1.0 10:1.0 13:1.0 17:1.0 18:1.0 19:1.0 36:1.0 43:1.0 208:1.0 346:1.0 764:1.0 915:1.0 1846:1.0 2787:1.0 2788:1.0 
0.023797143583049674 10:1.0 13:1.0 34:1.0 35:1.0 36:1.0 106:1.0 112:1.0 204:1.0 410:1.0 411:1.0 412:1.0 413:1.0 414:1.0 415:1.0 416:1.0 
0.005724978647705489 10:1.0 11:1.0 12:1.0 34:1.0 35:1.0 112:1.0 117:1.0 123:1.0 204:1.0 206:1.0 207:1.0 456:1.0 2806:1.0 3068:1.0 3749:1.0 
0.0071724539019821665 2:1.0 4:1.0 5:1.0 10:1.0 34:1.0 35:1.0 117:1.0 123:1.0 196:1.0 201:1.0 461:1.0 464:1.0 465:1.0 3070:1.0 3751:1.0 
0.022852093247691142 2:1.0 8:1.0 9:1.0 10:1.0 34:1.0 35:1.0 36:1.0 199:1.0 204:1.0 406:1.0 407:1.0 475:1.0 476:1.0 477:1.0 478:1.0 
0.005129055881349213 10:1.0 36:1.0 51:1.0 52:1.0 106:1.0 208:1.0 210:1.0 211:1.0 273:1.0 501:1.0 502:1.0 503:1.0 504:1.0 505:1.0 506:1.0 
0.06802657365470012 2:1.0 10:1.0 34:1.0 35:1.0 36:1.0 117:1.0 206:1.0 207:1.0 262:1.0 277:1.0 278:1.0 524:1.0 525:1.0 526:1.0 527:1.0 
0.006208681912405229 10:1.0 13:1.0 17:1.0 18:1.0 30:1.0 31:1.0 34:1.0 35:1.0 106:1.0 112:1.0 294:1.0 543:1.0 544:1.0 3754:1.0 3755:1.0 
0.006162715468388767 6:1.0 10:1.0 21:1.0 41:1.0 42:1.0 61:1.0 62:1.0 120:1.0 223:1.0 224:1.0 264:1.0 265:1.0 561:1.0 563:1.0 3764:1.0 
0.005061089214228806 6:1.0 10:1.0 21:1.0 43:1.0 61:1.0 62:1.0 154:1.0 229:1.0 230:1.0 257:1.0 277:1.0 278:1.0 568:1.0 569:1.0 570:1.0 
0.0025031546725533945 10:1.0 15:1.0 32:1.0 53:1.0 157:1.0 233:1.0 234:1.0 262:1.0 264:1.0 265:1.0 280:1.0 281:1.0 571:1.0 572:1.0 573:1.0 
0.06189919723477096 10:1.0 32:1.0 53:1.0 163:1.0 204:1.0 264:1.0 265:1.0 273:1.0 277:1.0 278:1.0 292:1.0 293:1.0 577:1.0 578:1.0 579:1.0 
0.010210630713743075 2:1.0 10:1.0 53:1.0 172:1.0 204:1.0 206:1.0 207:1.0 277:1.0 278:1.0 287:1.0 288:1.0 289:1.0 583:1.0 584:1.0 585:1.0 
0.011288539788284398 8:1.0 9:1.0 10:1.0 32:1.0 34:1.0 35:1.0 36:1.0 109:1.0 114:1.0 277:1.0 278:1.0 438:1.0 598:1.0 599:1.0 600:1.0 
0.004826706417287032 10:1.0 17:1.0 18:1.0 19:1.0 43:1.0 45:1.0 46:1.0 112:1.0 117:1.0 280:1.0 281:1.0 443:1.0 601:1.0 602:1.0 603:1.0 
0.001708358079090119 10:1.0 15:1.0 17:1.0 18:1.0 19:1.0 30:1.0 31:1.0 117:1.0 123:1.0 195:1.0 292:1.0 293:1.0 454:1.0 607:1.0 608:1.0 
0.09307284223227925 10:1.0 30:1.0 31:1.0 34:1.0 35:1.0 36:1.0 112:1.0 117:1.0 171:1.0 204:1.0 264:1.0 265:1.0 631:1.0 632:1.0 633:1.0 
0.03244254474313475 10:1.0 19:1.0 34:1.0 35:1.0 36:1.0 268:1.0 282:1.0 487:1.0 488:1.0 661:1.0 662:1.0 663:1.0 664:1.0 665:1.0 666:1.0 
0.005078246881120392 10:1.0 32:1.0 257:1.0 268:1.0 269:1.0 270:1.0 271:1.0 294:1.0 509:1.0 510:1.0 687:1.0 688:1.0 689:1.0 690:1.0 691:1.0 
0.06612388572390182 10:1.0 43:1.0 257:1.0 262:1.0 273:1.0 274:1.0 277:1.0 278:1.0 515:1.0 516:1.0 692:1.0 693:1.0 694:1.0 695:1.0 696:1.0 
0.0183180454937454 10:1.0 53:1.0 262:1.0 264:1.0 265:1.0 268:1.0 280:1.0 281:1.0 282:1.0 283:1.0 697:1.0 698:1.0 699:1.0 700:1.0 701:1.0 
0.0077999578389302835 10:1.0 201:1.0 268:1.0 270:1.0 271:1.0 273:1.0 287:1.0 288:1.0 289:1.0 290:1.0 702:1.0 703:1.0 704:1.0 705:1.0 706:1.0 
0.009497727239333278 10:1.0 13:1.0 15:1.0 34:1.0 35:1.0 36:1.0 201:1.0 487:1.0 488:1.0 543:1.0 727:1.0 728:1.0 729:1.0 730:1.0 731:1.0 
0.0021343769895484275 10:1.0 32:1.0 36:1.0 208:1.0 264:1.0 265:1.0 270:1.0 271:1.0 496:1.0 497:1.0 551:1.0 736:1.0 737:1.0 738:1.0 739:1.0 
0.008020698658401368 2:1.0 10:1.0 43:1.0 257:1.0 270:1.0 271:1.0 277:1.0 278:1.0 502:1.0 503:1.0 740:1.0 741:1.0 742:1.0 743:1.0 744:1.0 
1.9400691437939193E-4 10:1.0 13:1.0 53:1.0 262:1.0 277:1.0 278:1.0 280:1.0 281:1.0 509:1.0 510:1.0 648:1.0 649:1.0 745:1.0 746:1.0 747:1.0 
0.006666616728499131 10:1.0 19:1.0 36:1.0 262:1.0 273:1.0 287:1.0 288:1.0 292:1.0 293:1.0 658:1.0 659:1.0 751:1.0 752:1.0 753:1.0 754:1.0 
0.012552595964651143 6:1.0 10:1.0 32:1.0 205:1.0 208:1.0 273:1.0 289:1.0 460:1.0 683:1.0 684:1.0 769:1.0 770:1.0 771:1.0 772:1.0 773:1.0 
0.019001959540411374 10:1.0 15:1.0 17:1.0 18:1.0 19:1.0 30:1.0 31:1.0 32:1.0 33:1.0 34:1.0 35:1.0 36:1.0 38:1.0 39:1.0 797:1.0 
-0.20446418235992078 10:1.0 34:1.0 35:1.0 53:1.0 117:1.0 262:1.0 264:1.0 265:1.0 273:1.0 274:1.0 276:1.0 277:1.0 278:1.0 279:1.0 802:1.0 
-0.004169725450525572 45:1.0 46:1.0 120:1.0 201:1.0 240:1.0 268:1.0 270:1.0 271:1.0 280:1.0 281:1.0 282:1.0 283:1.0 285:1.0 803:1.0 804:1.0 
-0.005337980880568082 15:1.0 21:1.0 201:1.0 204:1.0 289:1.0 298:1.0 299:1.0 319:1.0 320:1.0 321:1.0 322:1.0 323:1.0 324:1.0 325:1.0 803:1.0 
-6.133271968488214E-4 19:1.0 51:1.0 52:1.0 112:1.0 114:1.0 282:1.0 294:1.0 436:1.0 803:1.0 817:1.0 824:1.0 825:1.0 826:1.0 827:1.0 828:1.0 
-0.020619434080240227 30:1.0 31:1.0 32:1.0 106:1.0 112:1.0 123:1.0 131:1.0 270:1.0 271:1.0 454:1.0 803:1.0 843:1.0 844:1.0 845:1.0 846:1.0 
-0.006163630713383669 289:1.0 396:1.0 397:1.0 406:1.0 407:1.0 434:1.0 435:1.0 464:1.0 803:1.0 833:1.0 834:1.0 839:1.0 840:1.0 896:1.0 897:1.0 
-0.01664188430660274 8:1.0 9:1.0 15:1.0 32:1.0 36:1.0 204:1.0 336:1.0 426:1.0 427:1.0 661:1.0 662:1.0 803:1.0 920:1.0 921:1.0 922:1.0 
-4.899723022810017E-5 2:1.0 6:1.0 15:1.0 19:1.0 25:1.0 36:1.0 41:1.0 42:1.0 231:1.0 374:1.0 803:1.0 1095:1.0 1096:1.0 1097:1.0 1098:1.0 
-5.6381344982368106E-5 25:1.0 36:1.0 41:1.0 42:1.0 109:1.0 201:1.0 208:1.0 410:1.0 411:1.0 803:1.0 1618:1.0 1619:1.0 1620:1.0 1621:1.0 1622:1.0 
-6.134383924471382E-5 2:1.0 25:1.0 112:1.0 123:1.0 201:1.0 204:1.0 418:1.0 419:1.0 803:1.0 1642:1.0 1643:1.0 1644:1.0 1645:1.0 1646:1.0 1647:1.0 
-6.230033730845556E-5 13:1.0 36:1.0 114:1.0 204:1.0 206:1.0 207:1.0 208:1.0 426:1.0 427:1.0 803:1.0 1648:1.0 1649:1.0 1650:1.0 1651:1.0 1652:1.0 
-8.979431909531358E-5 6:1.0 8:1.0 9:1.0 21:1.0 23:1.0 24:1.0 25:1.0 36:1.0 196:1.0 221:1.0 223:1.0 224:1.0 803:1.0 1664:1.0 1665:1.0 
-1.249002460316047E-4 23:1.0 24:1.0 25:1.0 106:1.0 112:1.0 803:1.0 1020:1.0 1021:1.0 1025:1.0 1026:1.0 1027:1.0 1060:1.0 1061:1.0 1070:1.0 1071:1.0 
-8.701267850102224E-5 6:1.0 15:1.0 19:1.0 21:1.0 25:1.0 32:1.0 61:1.0 62:1.0 366:1.0 803:1.0 1812:1.0 1830:1.0 1879:1.0 1918:1.0 1919:1.0 
-0.204119986709402 10:1.0 34:1.0 35:1.0 53:1.0 117:1.0 262:1.0 264:1.0 265:1.0 273:1.0 274:1.0 276:1.0 277:1.0 278:1.0 279:1.0 2146:1.0 
-0.004165796405476117 45:1.0 46:1.0 120:1.0 201:1.0 240:1.0 268:1.0 270:1.0 271:1.0 280:1.0 281:1.0 282:1.0 283:1.0 285:1.0 803:1.0 2147:1.0 
-0.010324962647254209 21:1.0 109:1.0 257:1.0 289:1.0 348:1.0 349:1.0 351:1.0 374:1.0 803:1.0 1046:1.0 1047:1.0 1049:1.0 1050:1.0 2092:1.0 2093:1.0 
-0.02583629582005772 2:1.0 109:1.0 123:1.0 287:1.0 288:1.0 289:1.0 348:1.0 349:1.0 374:1.0 381:1.0 648:1.0 649:1.0 803:1.0 2100:1.0 2101:1.0 
-0.02274577535341506 8:1.0 9:1.0 25:1.0 114:1.0 204:1.0 298:1.0 299:1.0 361:1.0 362:1.0 386:1.0 658:1.0 659:1.0 803:1.0 2104:1.0 2105:1.0 
-0.006170489266505969 8:1.0 9:1.0 13:1.0 30:1.0 31:1.0 123:1.0 262:1.0 268:1.0 581:1.0 675:1.0 676:1.0 803:1.0 807:1.0 2110:1.0 2111:1.0 
-0.20469410164873142 10:1.0 34:1.0 35:1.0 53:1.0 117:1.0 262:1.0 264:1.0 265:1.0 273:1.0 274:1.0 276:1.0 277:1.0 278:1.0 279:1.0 2335:1.0 
-0.004161670352898721 45:1.0 46:1.0 120:1.0 201:1.0 240:1.0 268:1.0 270:1.0 271:1.0 280:1.0 281:1.0 282:1.0 283:1.0 285:1.0 803:1.0 2336:1.0 
-0.008844760784362775 25:1.0 32:1.0 112:1.0 201:1.0 294:1.0 352:1.0 353:1.0 357:1.0 380:1.0 653:1.0 654:1.0 803:1.0 2103:1.0 2183:1.0 2308:1.0 
-0.006637940973563678 6:1.0 13:1.0 30:1.0 31:1.0 123:1.0 333:1.0 334:1.0 366:1.0 382:1.0 492:1.0 493:1.0 675:1.0 676:1.0 803:1.0 2110:1.0 
-0.013095021466653086 15:1.0 25:1.0 41:1.0 42:1.0 106:1.0 341:1.0 342:1.0 372:1.0 496:1.0 497:1.0 506:1.0 683:1.0 684:1.0 803:1.0 2112:1.0 
-0.02933405631283035 21:1.0 36:1.0 51:1.0 52:1.0 109:1.0 257:1.0 348:1.0 349:1.0 351:1.0 374:1.0 502:1.0 503:1.0 511:1.0 803:1.0 2113:1.0 
-4.934744793790223E-5 6:1.0 15:1.0 19:1.0 21:1.0 25:1.0 32:1.0 61:1.0 62:1.0 366:1.0 803:1.0 1260:1.0 1289:1.0 1290:1.0 1998:1.0 2403:1.0 
-0.2041281734727373 10:1.0 34:1.0 35:1.0 53:1.0 117:1.0 262:1.0 264:1.0 265:1.0 273:1.0 274:1.0 276:1.0 277:1.0 278:1.0 279:1.0 2510:1.0 
-0.0041666939160250075 45:1.0 46:1.0 120:1.0 201:1.0 240:1.0 268:1.0 270:1.0 271:1.0 280:1.0 281:1.0 282:1.0 283:1.0 285:1.0 803:1.0 2511:1.0 
-0.02490442589244736 2:1.0 8:1.0 9:1.0 204:1.0 246:1.0 277:1.0 278:1.0 287:1.0 288:1.0 289:1.0 297:1.0 298:1.0 299:1.0 803:1.0 2451:1.0 
-0.013636851169487424 2:1.0 25:1.0 27:1.0 28:1.0 201:1.0 204:1.0 255:1.0 287:1.0 288:1.0 298:1.0 299:1.0 803:1.0 2454:1.0 2455:1.0 2456:1.0 
-0.011168998672778256 13:1.0 30:1.0 31:1.0 36:1.0 201:1.0 204:1.0 208:1.0 261:1.0 292:1.0 293:1.0 803:1.0 2457:1.0 2458:1.0 2459:1.0 2460:1.0 
-0.0019071458788428445 2:1.0 13:1.0 19:1.0 25:1.0 61:1.0 62:1.0 204:1.0 277:1.0 278:1.0 359:1.0 803:1.0 2028:1.0 2469:1.0 2470:1.0 2471:1.0 
-0.01297356880255729 6:1.0 13:1.0 25:1.0 36:1.0 208:1.0 280:1.0 281:1.0 333:1.0 334:1.0 366:1.0 803:1.0 2030:1.0 2472:1.0 2473:1.0 2474:1.0 
-0.014112337574335772 2:1.0 15:1.0 25:1.0 36:1.0 106:1.0 287:1.0 288:1.0 341:1.0 342:1.0 372:1.0 803:1.0 2031:1.0 2475:1.0 2476:1.0 2477:1.0 
-0.01021975273359816 13:1.0 21:1.0 36:1.0 109:1.0 257:1.0 292:1.0 293:1.0 348:1.0 349:1.0 351:1.0 374:1.0 803:1.0 2034:1.0 2478:1.0 2479:1.0 
-0.007987978270748031 4:1.0 5:1.0 21:1.0 32:1.0 43:1.0 53:1.0 201:1.0 270:1.0 271:1.0 803:1.0 1263:1.0 2588:1.0 2589:1.0 2590:1.0 2591:1.0 
-0.030528889759547432 23:1.0 24:1.0 43:1.0 53:1.0 204:1.0 208:1.0 264:1.0 265:1.0 280:1.0 281:1.0 803:1.0 2597:1.0 2598:1.0 2599:1.0 2600:1.0 
-0.00359202531199083 13:1.0 19:1.0 25:1.0 36:1.0 204:1.0 208:1.0 312:1.0 390:1.0 410:1.0 411:1.0 803:1.0 2637:1.0 2638:1.0 2639:1.0 2640:1.0 
-0.0017754339193259345 2:1.0 6:1.0 8:1.0 9:1.0 13:1.0 15:1.0 25:1.0 294:1.0 803:1.0 2343:1.0 2715:1.0 2716:1.0 2717:1.0 2718:1.0 2719:1.0 
-0.0023829907260335048 19:1.0 21:1.0 25:1.0 27:1.0 28:1.0 32:1.0 36:1.0 204:1.0 803:1.0 976:1.0 977:1.0 2348:1.0 2724:1.0 2725:1.0 2726:1.0 
-0.2041360951078776 10:1.0 34:1.0 35:1.0 53:1.0 117:1.0 262:1.0 264:1.0 265:1.0 273:1.0 274:1.0 276:1.0 277:1.0 278:1.0 279:1.0 2832:1.0 
-0.004169435136066832 45:1.0 46:1.0 120:1.0 201:1.0 240:1.0 268:1.0 270:1.0 271:1.0 280:1.0 281:1.0 282:1.0 283:1.0 285:1.0 803:1.0 2833:1.0 
-0.007672606041672438 2:1.0 15:1.0 25:1.0 36:1.0 201:1.0 204:1.0 287:1.0 288:1.0 323:1.0 754:1.0 803:1.0 887:1.0 1840:1.0 2780:1.0 2781:1.0 
-5.297626357981533E-5 2:1.0 8:1.0 9:1.0 25:1.0 32:1.0 204:1.0 208:1.0 298:1.0 299:1.0 336:1.0 761:1.0 803:1.0 1843:1.0 2785:1.0 2786:1.0 
-7.863645580716481E-5 6:1.0 19:1.0 30:1.0 31:1.0 51:1.0 52:1.0 282:1.0 294:1.0 317:1.0 327:1.0 406:1.0 407:1.0 803:1.0 2883:1.0 2884:1.0 
-6.968050453569947E-5 6:1.0 15:1.0 19:1.0 41:1.0 42:1.0 61:1.0 62:1.0 289:1.0 323:1.0 337:1.0 410:1.0 411:1.0 803:1.0 2885:1.0 2886:1.0 
-0.002534142053455381 15:1.0 19:1.0 21:1.0 25:1.0 32:1.0 61:1.0 62:1.0 204:1.0 803:1.0 867:1.0 868:1.0 2545:1.0 2776:1.0 2867:1.0 2919:1.0 
-1.8592464089141924E-4 8:1.0 9:1.0 30:1.0 31:1.0 51:1.0 52:1.0 262:1.0 282:1.0 294:1.0 406:1.0 407:1.0 803:1.0 1323:1.0 2979:1.0 2988:1.0 
-4.149039333632883E-5 6:1.0 13:1.0 19:1.0 25:1.0 30:1.0 31:1.0 61:1.0 62:1.0 208:1.0 227:1.0 372:1.0 803:1.0 1092:1.0 1093:1.0 1094:1.0 
-3.918681459273617E-5 6:1.0 15:1.0 19:1.0 30:1.0 31:1.0 51:1.0 52:1.0 282:1.0 294:1.0 323:1.0 803:1.0 817:1.0 818:1.0 1177:1.0 1178:1.0 
-0.20411239204396986 10:1.0 34:1.0 35:1.0 53:1.0 117:1.0 262:1.0 264:1.0 265:1.0 273:1.0 274:1.0 276:1.0 277:1.0 278:1.0 279:1.0 3091:1.0 
-0.004308631814718937 45:1.0 46:1.0 120:1.0 201:1.0 240:1.0 268:1.0 270:1.0 271:1.0 280:1.0 281:1.0 282:1.0 283:1.0 285:1.0 803:1.0 3092:1.0 
-0.008222753735416052 2:1.0 8:1.0 9:1.0 25:1.0 204:1.0 255:1.0 287:1.0 288:1.0 298:1.0 299:1.0 803:1.0 1015:1.0 1016:1.0 2165:1.0 2451:1.0 
-0.00449861475039739 13:1.0 30:1.0 31:1.0 36:1.0 201:1.0 204:1.0 803:1.0 1034:1.0 1035:1.0 1040:1.0 1041:1.0 2077:1.0 2169:1.0 2457:1.0 2460:1.0 
-0.0012211552109666335 6:1.0 8:1.0 9:1.0 15:1.0 21:1.0 25:1.0 32:1.0 123:1.0 803:1.0 843:1.0 1711:1.0 2347:1.0 2349:1.0 3102:1.0 3103:1.0 
-0.0069667920371773405 6:1.0 15:1.0 19:1.0 21:1.0 25:1.0 32:1.0 61:1.0 62:1.0 803:1.0 1213:1.0 2161:1.0 2297:1.0 2542:1.0 3115:1.0 3116:1.0 
-0.001387220276211574 6:1.0 15:1.0 19:1.0 21:1.0 25:1.0 32:1.0 61:1.0 62:1.0 366:1.0 803:1.0 1260:1.0 1289:1.0 1290:1.0 1998:1.0 2403:1.0 
-0.2047239223494352 10:1.0 34:1.0 35:1.0 53:1.0 117:1.0 262:1.0 264:1.0 265:1.0 273:1.0 274:1.0 276:1.0 277:1.0 278:1.0 279:1.0 3217:1.0 
-0.004735259535701971 45:1.0 46:1.0 120:1.0 201:1.0 240:1.0 268:1.0 270:1.0 271:1.0 280:1.0 281:1.0 282:1.0 283:1.0 285:1.0 803:1.0 3218:1.0 
-0.006780265548945102 2:1.0 13:1.0 36:1.0 201:1.0 204:1.0 261:1.0 277:1.0 278:1.0 292:1.0 293:1.0 359:1.0 803:1.0 910:1.0 911:1.0 1646:1.0 
-0.005497166897874558 13:1.0 25:1.0 204:1.0 208:1.0 280:1.0 281:1.0 298:1.0 299:1.0 333:1.0 334:1.0 366:1.0 803:1.0 913:1.0 914:1.0 1651:1.0 
-0.03138764085651967 2:1.0 13:1.0 36:1.0 292:1.0 293:1.0 333:1.0 334:1.0 341:1.0 342:1.0 348:1.0 349:1.0 374:1.0 803:1.0 920:1.0 1658:1.0 
-0.014730868515468459 36:1.0 257:1.0 262:1.0 268:1.0 352:1.0 353:1.0 361:1.0 362:1.0 369:1.0 370:1.0 390:1.0 527:1.0 581:1.0 803:1.0 2969:1.0 
-0.018081157895719426 4:1.0 5:1.0 21:1.0 32:1.0 43:1.0 53:1.0 201:1.0 204:1.0 803:1.0 874:1.0 902:1.0 903:1.0 1329:1.0 2088:1.0 3237:1.0 
-0.036193720453768743 2:1.0 19:1.0 23:1.0 24:1.0 43:1.0 53:1.0 208:1.0 270:1.0 271:1.0 803:1.0 883:1.0 907:1.0 909:1.0 995:1.0 3239:1.0 
-0.010443613552574645 6:1.0 13:1.0 15:1.0 25:1.0 45:1.0 46:1.0 106:1.0 107:1.0 280:1.0 281:1.0 803:1.0 913:1.0 914:1.0 1007:1.0 3242:1.0 
-0.00345787984893072 2:1.0 15:1.0 25:1.0 36:1.0 201:1.0 204:1.0 282:1.0 803:1.0 984:1.0 987:1.0 988:1.0 989:1.0 3263:1.0 3264:1.0 3265:1.0 
-0.009427195486704756 2:1.0 15:1.0 41:1.0 42:1.0 43:1.0 61:1.0 62:1.0 99:1.0 201:1.0 204:1.0 579:1.0 803:1.0 984:1.0 1172:1.0 3269:1.0 
-0.004224639294962025 6:1.0 15:1.0 19:1.0 21:1.0 25:1.0 36:1.0 41:1.0 42:1.0 326:1.0 593:1.0 803:1.0 1180:1.0 1181:1.0 1182:1.0 3274:1.0 
-0.20414629519907287 10:1.0 34:1.0 35:1.0 53:1.0 117:1.0 262:1.0 264:1.0 265:1.0 273:1.0 274:1.0 276:1.0 277:1.0 278:1.0 279:1.0 3336:1.0 
-0.004741310480686243 45:1.0 46:1.0 120:1.0 201:1.0 240:1.0 268:1.0 270:1.0 271:1.0 280:1.0 281:1.0 282:1.0 283:1.0 285:1.0 803:1.0 3337:1.0 
-7.926369875629224E-4 2:1.0 15:1.0 106:1.0 282:1.0 292:1.0 293:1.0 294:1.0 341:1.0 342:1.0 372:1.0 803:1.0 2031:1.0 3293:1.0 3294:1.0 3295:1.0 
-0.005222793216779305 13:1.0 21:1.0 109:1.0 257:1.0 289:1.0 298:1.0 299:1.0 348:1.0 349:1.0 351:1.0 374:1.0 803:1.0 2034:1.0 3296:1.0 3297:1.0 
-0.00442299026308818 4:1.0 5:1.0 21:1.0 32:1.0 43:1.0 53:1.0 201:1.0 204:1.0 803:1.0 883:1.0 1256:1.0 2586:1.0 3350:1.0 3351:1.0 3352:1.0 
-0.018402878451195183 2:1.0 6:1.0 23:1.0 24:1.0 43:1.0 53:1.0 201:1.0 208:1.0 803:1.0 851:1.0 1435:1.0 2594:1.0 3356:1.0 3357:1.0 3358:1.0 
-0.006297171896062455 2:1.0 13:1.0 25:1.0 36:1.0 112:1.0 201:1.0 262:1.0 803:1.0 875:1.0 876:1.0 2569:1.0 2608:1.0 3371:1.0 3372:1.0 3373:1.0 
-0.006442791252342593 2:1.0 15:1.0 25:1.0 201:1.0 204:1.0 294:1.0 323:1.0 418:1.0 419:1.0 803:1.0 1399:1.0 2924:1.0 3396:1.0 3397:1.0 3398:1.0 
-6.326866392735202E-4 2:1.0 13:1.0 36:1.0 43:1.0 112:1.0 201:1.0 204:1.0 346:1.0 803:1.0 2569:1.0 2595:1.0 2665:1.0 2931:1.0 3404:1.0 3405:1.0 
-0.006218147517502234 2:1.0 13:1.0 25:1.0 112:1.0 113:1.0 123:1.0 201:1.0 204:1.0 803:1.0 1744:1.0 2578:1.0 2673:1.0 2711:1.0 3414:1.0 3415:1.0 
-0.002004657066336505 2:1.0 13:1.0 25:1.0 112:1.0 113:1.0 123:1.0 124:1.0 201:1.0 803:1.0 1755:1.0 2673:1.0 3422:1.0 3423:1.0 3424:1.0 3425:1.0 
-7.504384624557742E-5 13:1.0 36:1.0 106:1.0 112:1.0 114:1.0 262:1.0 289:1.0 423:1.0 803:1.0 1394:1.0 1977:1.0 2569:1.0 2570:1.0 2608:1.0 3450:1.0 
-0.004747403832061201 6:1.0 15:1.0 19:1.0 25:1.0 32:1.0 144:1.0 294:1.0 410:1.0 411:1.0 719:1.0 803:1.0 1413:1.0 3458:1.0 3459:1.0 3460:1.0 
-0.006466961136911737 4:1.0 5:1.0 21:1.0 32:1.0 43:1.0 53:1.0 201:1.0 270:1.0 271:1.0 803:1.0 1256:1.0 1461:1.0 2586:1.0 3482:1.0 3483:1.0 
-0.025924986339814448 23:1.0 24:1.0 43:1.0 53:1.0 204:1.0 208:1.0 264:1.0 265:1.0 280:1.0 281:1.0 803:1.0 2594:1.0 3487:1.0 3488:1.0 3489:1.0 
-0.003790090908275994 13:1.0 25:1.0 201:1.0 204:1.0 208:1.0 280:1.0 281:1.0 298:1.0 299:1.0 803:1.0 3107:1.0 3514:1.0 3515:1.0 3516:1.0 3517:1.0 
-0.004067893469660553 2:1.0 25:1.0 201:1.0 204:1.0 277:1.0 278:1.0 287:1.0 288:1.0 294:1.0 803:1.0 3517:1.0 3550:1.0 3551:1.0 3552:1.0 3553:1.0 
-0.004698924123901285 13:1.0 19:1.0 25:1.0 204:1.0 208:1.0 280:1.0 281:1.0 298:1.0 299:1.0 803:1.0 2708:1.0 2709:1.0 3532:1.0 3563:1.0 3564:1.0 
-0.004731822487964116 2:1.0 6:1.0 8:1.0 9:1.0 13:1.0 15:1.0 36:1.0 292:1.0 293:1.0 803:1.0 2343:1.0 2715:1.0 2719:1.0 3544:1.0 3567:1.0 
-0.002800675253752256 19:1.0 21:1.0 25:1.0 27:1.0 28:1.0 32:1.0 36:1.0 204:1.0 803:1.0 976:1.0 977:1.0 2348:1.0 2724:1.0 2725:1.0 3569:1.0 
-0.337743475130721 10:1.0 17:1.0 18:1.0 120:1.0 257:1.0 268:1.0 273:1.0 282:1.0 375:1.0 377:1.0 378:1.0 583:1.0 808:1.0 809:1.0 3316:1.0 
-0.039913941914714195 25:1.0 30:1.0 31:1.0 32:1.0 36:1.0 106:1.0 112:1.0 113:1.0 131:1.0 270:1.0 271:1.0 803:1.0 916:1.0 917:1.0 2307:1.0 
-0.022634892733256966 19:1.0 25:1.0 30:1.0 31:1.0 32:1.0 109:1.0 208:1.0 294:1.0 312:1.0 772:1.0 803:1.0 894:1.0 3426:1.0 3715:1.0 3716:1.0 
-0.004922446293131162 2:1.0 6:1.0 36:1.0 41:1.0 42:1.0 43:1.0 112:1.0 201:1.0 317:1.0 763:1.0 774:1.0 803:1.0 3433:1.0 3717:1.0 3718:1.0 
-0.20414674766517713 10:1.0 34:1.0 35:1.0 53:1.0 117:1.0 262:1.0 264:1.0 265:1.0 273:1.0 274:1.0 276:1.0 277:1.0 278:1.0 279:1.0 3770:1.0 
-0.0047585563432629195 45:1.0 46:1.0 120:1.0 201:1.0 240:1.0 268:1.0 270:1.0 271:1.0 280:1.0 281:1.0 282:1.0 283:1.0 285:1.0 803:1.0 3771:1.0 
-0.008126752151780261 2:1.0 15:1.0 25:1.0 36:1.0 201:1.0 204:1.0 287:1.0 288:1.0 323:1.0 754:1.0 803:1.0 1840:1.0 2780:1.0 2781:1.0 3744:1.0 
-0.0021556943579170104 2:1.0 8:1.0 9:1.0 25:1.0 32:1.0 204:1.0 208:1.0 298:1.0 299:1.0 336:1.0 761:1.0 803:1.0 1843:1.0 2785:1.0 2786:1.0 
-0.009801900141053792 36:1.0 109:1.0 114:1.0 277:1.0 278:1.0 289:1.0 590:1.0 803:1.0 1001:1.0 1002:1.0 2367:1.0 2522:1.0 2523:1.0 3777:1.0 3778:1.0 
-0.0017692469664589915 6:1.0 19:1.0 30:1.0 31:1.0 51:1.0 52:1.0 282:1.0 294:1.0 317:1.0 327:1.0 406:1.0 407:1.0 803:1.0 2883:1.0 2884:1.0 
-0.008743047200356022 6:1.0 15:1.0 19:1.0 41:1.0 42:1.0 61:1.0 62:1.0 289:1.0 323:1.0 337:1.0 410:1.0 411:1.0 803:1.0 2885:1.0 2886:1.0 
-0.0027326456162245372 15:1.0 19:1.0 21:1.0 25:1.0 32:1.0 61:1.0 62:1.0 204:1.0 803:1.0 867:1.0 2545:1.0 2776:1.0 2867:1.0 2922:1.0 3739:1.0 
-0.01071258512281695 8:1.0 9:1.0 30:1.0 31:1.0 51:1.0 52:1.0 262:1.0 282:1.0 294:1.0 406:1.0 407:1.0 803:1.0 1323:1.0 2979:1.0 2988:1.0 
-0.004801096834091038 2:1.0 6:1.0 15:1.0 19:1.0 41:1.0 42:1.0 289:1.0 323:1.0 434:1.0 435:1.0 803:1.0 3001:1.0 3798:1.0 3799:1.0 3800:1.0 
-0.0032767759996839897 8:1.0 9:1.0 109:1.0 114:1.0 120:1.0 277:1.0 278:1.0 294:1.0 668:1.0 669:1.0 803:1.0 1048:1.0 1073:1.0 1076:1.0 1077:1.0 
-0.016249899495520297 6:1.0 13:1.0 19:1.0 25:1.0 30:1.0 31:1.0 61:1.0 62:1.0 208:1.0 227:1.0 372:1.0 803:1.0 1092:1.0 1093:1.0 1094:1.0 
-0.015823845135881146 2:1.0 6:1.0 15:1.0 19:1.0 25:1.0 36:1.0 41:1.0 42:1.0 231:1.0 374:1.0 803:1.0 1095:1.0 1096:1.0 1097:1.0 1098:1.0 
-0.00139001688715799 6:1.0 15:1.0 19:1.0 21:1.0 32:1.0 36:1.0 43:1.0 390:1.0 803:1.0 836:1.0 863:1.0 1105:1.0 1106:1.0 1107:1.0 1108:1.0 
-0.011840624183323394 6:1.0 15:1.0 19:1.0 30:1.0 31:1.0 51:1.0 52:1.0 282:1.0 294:1.0 323:1.0 803:1.0 817:1.0 818:1.0 1177:1.0 1178:1.0 
-0.004714607463317232 19:1.0 21:1.0 25:1.0 61:1.0 62:1.0 204:1.0 282:1.0 283:1.0 406:1.0 407:1.0 803:1.0 1595:1.0 3003:1.0 3007:1.0 3008:1.0 
-0.0019583619328914963 6:1.0 8:1.0 9:1.0 13:1.0 15:1.0 21:1.0 25:1.0 36:1.0 803:1.0 1258:1.0 1259:1.0 1344:1.0 1345:1.0 3024:1.0 3025:1.0 
-0.009158613028152705 2:1.0 61:1.0 62:1.0 287:1.0 288:1.0 289:1.0 396:1.0 397:1.0 406:1.0 407:1.0 464:1.0 781:1.0 803:1.0 1524:1.0 1525:1.0 
-3.301380355030747E-5 6:1.0 8:1.0 9:1.0 25:1.0 298:1.0 299:1.0 406:1.0 407:1.0 418:1.0 419:1.0 470:1.0 803:1.0 1529:1.0 1530:1.0 1531:1.0 
-1.2445091518476542E-4 6:1.0 19:1.0 30:1.0 31:1.0 32:1.0 406:1.0 407:1.0 426:1.0 427:1.0 486:1.0 803:1.0 1218:1.0 1245:1.0 1537:1.0 1538:1.0 
-0.015617521908480815 19:1.0 30:1.0 31:1.0 32:1.0 36:1.0 262:1.0 643:1.0 695:1.0 803:1.0 1015:1.0 1016:1.0 1572:1.0 1590:1.0 1591:1.0 1596:1.0 
-0.014278461515688845 13:1.0 25:1.0 30:1.0 31:1.0 106:1.0 123:1.0 204:1.0 406:1.0 407:1.0 803:1.0 1613:1.0 1614:1.0 1615:1.0 1616:1.0 1617:1.0 
-0.008191673568690347 25:1.0 36:1.0 41:1.0 42:1.0 109:1.0 201:1.0 208:1.0 410:1.0 411:1.0 803:1.0 1618:1.0 1619:1.0 1620:1.0 1621:1.0 1622:1.0 
-0.011195511627266043 2:1.0 36:1.0 51:1.0 52:1.0 112:1.0 204:1.0 396:1.0 397:1.0 418:1.0 419:1.0 803:1.0 1623:1.0 1624:1.0 1625:1.0 1626:1.0 
-0.014404717250728128 2:1.0 25:1.0 112:1.0 123:1.0 201:1.0 204:1.0 418:1.0 419:1.0 803:1.0 1642:1.0 1643:1.0 1644:1.0 1645:1.0 1646:1.0 1647:1.0 
-0.0086988399949766 13:1.0 36:1.0 114:1.0 204:1.0 206:1.0 207:1.0 208:1.0 426:1.0 427:1.0 803:1.0 1648:1.0 1649:1.0 1650:1.0 1651:1.0 1652:1.0 
-0.023354332433757334 2:1.0 4:1.0 5:1.0 6:1.0 13:1.0 36:1.0 120:1.0 214:1.0 215:1.0 216:1.0 803:1.0 1657:1.0 1658:1.0 1659:1.0 1660:1.0 
-0.012928021132692107 11:1.0 12:1.0 13:1.0 15:1.0 19:1.0 25:1.0 123:1.0 195:1.0 218:1.0 219:1.0 220:1.0 803:1.0 1661:1.0 1662:1.0 1663:1.0 
-0.11504988484089126 6:1.0 8:1.0 9:1.0 21:1.0 23:1.0 24:1.0 25:1.0 36:1.0 196:1.0 221:1.0 223:1.0 224:1.0 803:1.0 1664:1.0 1665:1.0 
-0.0181859792567018 21:1.0 32:1.0 36:1.0 43:1.0 204:1.0 206:1.0 207:1.0 803:1.0 1034:1.0 1035:1.0 1062:1.0 1685:1.0 1686:1.0 1687:1.0 1688:1.0 
-0.011095813557690052 2:1.0 4:1.0 5:1.0 43:1.0 53:1.0 106:1.0 803:1.0 1008:1.0 1009:1.0 1010:1.0 1046:1.0 1047:1.0 1066:1.0 1692:1.0 1693:1.0 
-0.07570971433621967 23:1.0 24:1.0 25:1.0 106:1.0 112:1.0 803:1.0 1020:1.0 1021:1.0 1025:1.0 1026:1.0 1027:1.0 1060:1.0 1061:1.0 1070:1.0 1071:1.0 
-0.012951929844118457 112:1.0 117:1.0 123:1.0 204:1.0 206:1.0 207:1.0 280:1.0 281:1.0 803:1.0 982:1.0 1052:1.0 1053:1.0 1054:1.0 1055:1.0 1056:1.0 
-0.012167649133366229 2:1.0 4:1.0 5:1.0 117:1.0 123:1.0 201:1.0 204:1.0 292:1.0 293:1.0 803:1.0 988:1.0 989:1.0 990:1.0 1063:1.0 1064:1.0 
-0.034505077838137915 2:1.0 23:1.0 24:1.0 25:1.0 123:1.0 208:1.0 257:1.0 262:1.0 803:1.0 996:1.0 999:1.0 1005:1.0 1069:1.0 1222:1.0 1702:1.0 
-0.0022535473722357373 6:1.0 19:1.0 30:1.0 31:1.0 208:1.0 258:1.0 282:1.0 289:1.0 294:1.0 803:1.0 1256:1.0 1507:1.0 1752:1.0 1803:1.0 1804:1.0 
-0.0030693255834793962 2:1.0 6:1.0 15:1.0 19:1.0 41:1.0 42:1.0 263:1.0 289:1.0 294:1.0 803:1.0 1263:1.0 1755:1.0 1805:1.0 1806:1.0 1807:1.0 
-0.001352183910749849 6:1.0 15:1.0 19:1.0 21:1.0 25:1.0 32:1.0 61:1.0 62:1.0 366:1.0 803:1.0 1812:1.0 1830:1.0 1879:1.0 1918:1.0 1919:1.0 
