svm_type c_svc
kernel_type linear
nr_class 2
total_sv 89
rho -1.0792285487249555
label -1 1
nr_sv 86 3
SV
0.005236684738171044 14:1.0 45:1.0 46:1.0 47:1.0 85:1.0 108:1.0 109:1.0 292:1.0 348:1.0 367:1.0 384:1.0 385:1.0 399:1.0 401:1.0 402:1.0 412:1.0 413:1.0 414:1.0 415:1.0 416:1.0 417:1.0 418:1.0 419:1.0 
0.00582567279949145 14:1.0 29:1.0 47:1.0 61:1.0 99:1.0 292:1.0 294:1.0 295:1.0 523:1.0 524:1.0 525:1.0 553:1.0 554:1.0 555:1.0 556:1.0 557:1.0 558:1.0 559:1.0 560:1.0 561:1.0 562:1.0 563:1.0 564:1.0 
0.0014838282382796564 14:1.0 31:1.0 32:1.0 33:1.0 99:1.0 294:1.0 295:1.0 306:1.0 563:1.0 579:1.0 581:1.0 582:1.0 585:1.0 596:1.0 611:1.0 612:1.0 613:1.0 614:1.0 615:1.0 616:1.0 617:1.0 618:1.0 619:1.0 
7.842080212483499E-4 14:1.0 31:1.0 32:1.0 59:1.0 60:1.0 278:1.0 287:1.0 306:1.0 308:1.0 309:1.0 611:1.0 630:1.0 649:1.0 658:1.0 671:1.0 672:1.0 673:1.0 674:1.0 675:1.0 676:1.0 677:1.0 678:1.0 679:1.0 
0.009920213380453152 6:1.0 14:1.0 29:1.0 35:1.0 36:1.0 43:1.0 68:1.0 69:1.0 70:1.0 95:1.0 96:1.0 97:1.0 98:1.0 99:1.0 100:1.0 300:1.0 301:1.0 363:1.0 365:1.0 367:1.0 368:1.0 574:1.0 1243:1.0 
0.008180606107622715 14:1.0 19:1.0 41:1.0 42:1.0 43:1.0 57:1.0 83:1.0 84:1.0 85:1.0 106:1.0 107:1.0 108:1.0 109:1.0 308:1.0 309:1.0 370:1.0 372:1.0 374:1.0 375:1.0 376:1.0 377:1.0 585:1.0 1244:1.0 
0.008845755715838424 4:1.0 5:1.0 14:1.0 29:1.0 55:1.0 56:1.0 57:1.0 70:1.0 97:1.0 98:1.0 99:1.0 114:1.0 115:1.0 367:1.0 378:1.0 379:1.0 382:1.0 383:1.0 384:1.0 385:1.0 386:1.0 596:1.0 1245:1.0 
0.005229539784424276 14:1.0 45:1.0 46:1.0 47:1.0 85:1.0 108:1.0 109:1.0 292:1.0 348:1.0 367:1.0 384:1.0 385:1.0 399:1.0 401:1.0 402:1.0 412:1.0 413:1.0 414:1.0 415:1.0 416:1.0 417:1.0 418:1.0 3283:1.0 
8.134035855007725E-4 14:1.0 31:1.0 32:1.0 59:1.0 60:1.0 278:1.0 287:1.0 306:1.0 308:1.0 309:1.0 611:1.0 630:1.0 649:1.0 658:1.0 673:1.0 674:1.0 675:1.0 676:1.0 677:1.0 678:1.0 679:1.0 3383:1.0 3384:1.0 
6.418728771596804E-4 2:1.0 8:1.0 9:1.0 14:1.0 45:1.0 46:1.0 47:1.0 87:1.0 88:1.0 286:1.0 298:1.0 367:1.0 649:1.0 707:1.0 708:1.0 709:1.0 711:1.0 712:1.0 713:1.0 714:1.0 715:1.0 716:1.0 3391:1.0 
0.009903119413807743 6:1.0 14:1.0 29:1.0 35:1.0 36:1.0 43:1.0 68:1.0 69:1.0 70:1.0 95:1.0 96:1.0 97:1.0 98:1.0 99:1.0 100:1.0 300:1.0 301:1.0 363:1.0 365:1.0 367:1.0 368:1.0 574:1.0 3416:1.0 
0.008169335320498244 14:1.0 19:1.0 41:1.0 42:1.0 43:1.0 57:1.0 83:1.0 84:1.0 85:1.0 106:1.0 107:1.0 108:1.0 109:1.0 308:1.0 309:1.0 370:1.0 372:1.0 374:1.0 375:1.0 376:1.0 377:1.0 585:1.0 3417:1.0 
0.008852689021462435 4:1.0 5:1.0 14:1.0 29:1.0 55:1.0 56:1.0 57:1.0 70:1.0 97:1.0 98:1.0 99:1.0 114:1.0 115:1.0 367:1.0 378:1.0 379:1.0 382:1.0 383:1.0 384:1.0 385:1.0 386:1.0 596:1.0 3418:1.0 
8.125003870111018E-4 14:1.0 31:1.0 32:1.0 59:1.0 60:1.0 278:1.0 287:1.0 306:1.0 308:1.0 309:1.0 611:1.0 630:1.0 649:1.0 658:1.0 674:1.0 675:1.0 676:1.0 677:1.0 678:1.0 679:1.0 3387:1.0 3388:1.0 3728:1.0 
6.130745411081853E-4 2:1.0 8:1.0 9:1.0 14:1.0 45:1.0 46:1.0 47:1.0 87:1.0 88:1.0 286:1.0 298:1.0 367:1.0 649:1.0 707:1.0 708:1.0 709:1.0 711:1.0 712:1.0 713:1.0 714:1.0 715:1.0 716:1.0 3732:1.0 
0.00989035618046619 6:1.0 14:1.0 29:1.0 35:1.0 36:1.0 43:1.0 68:1.0 69:1.0 70:1.0 95:1.0 96:1.0 97:1.0 98:1.0 99:1.0 100:1.0 300:1.0 301:1.0 363:1.0 365:1.0 367:1.0 368:1.0 574:1.0 3757:1.0 
0.008172234587827508 14:1.0 19:1.0 41:1.0 42:1.0 43:1.0 57:1.0 83:1.0 84:1.0 85:1.0 106:1.0 107:1.0 108:1.0 109:1.0 308:1.0 309:1.0 370:1.0 372:1.0 374:1.0 375:1.0 376:1.0 377:1.0 585:1.0 3758:1.0 
0.008843070831032687 4:1.0 5:1.0 14:1.0 29:1.0 55:1.0 56:1.0 57:1.0 70:1.0 97:1.0 98:1.0 99:1.0 114:1.0 115:1.0 367:1.0 378:1.0 379:1.0 382:1.0 383:1.0 384:1.0 385:1.0 386:1.0 596:1.0 3759:1.0 
0.001882098488800877 14:1.0 19:1.0 21:1.0 22:1.0 23:1.0 41:1.0 42:1.0 51:1.0 52:1.0 70:1.0 97:1.0 98:1.0 99:1.0 112:1.0 113:1.0 129:1.0 151:1.0 169:1.0 203:1.0 229:1.0 230:1.0 231:1.0 232:1.0 
0.006116399250176331 6:1.0 12:1.0 13:1.0 14:1.0 29:1.0 35:1.0 36:1.0 55:1.0 56:1.0 64:1.0 65:1.0 85:1.0 108:1.0 109:1.0 120:1.0 121:1.0 135:1.0 155:1.0 172:1.0 208:1.0 233:1.0 234:1.0 235:1.0 
0.0014460723003316322 14:1.0 31:1.0 32:1.0 59:1.0 60:1.0 278:1.0 287:1.0 306:1.0 308:1.0 309:1.0 611:1.0 630:1.0 649:1.0 658:1.0 675:1.0 676:1.0 677:1.0 678:1.0 679:1.0 710:1.0 3696:1.0 4035:1.0 4036:1.0 
6.209539830194133E-4 2:1.0 8:1.0 9:1.0 14:1.0 45:1.0 46:1.0 47:1.0 87:1.0 88:1.0 286:1.0 298:1.0 367:1.0 649:1.0 707:1.0 708:1.0 709:1.0 711:1.0 712:1.0 713:1.0 714:1.0 715:1.0 716:1.0 4040:1.0 
0.009904935262830733 6:1.0 14:1.0 29:1.0 35:1.0 36:1.0 43:1.0 68:1.0 69:1.0 70:1.0 95:1.0 96:1.0 97:1.0 98:1.0 99:1.0 100:1.0 300:1.0 301:1.0 363:1.0 365:1.0 367:1.0 368:1.0 574:1.0 4065:1.0 
0.00816738804860604 14:1.0 19:1.0 41:1.0 42:1.0 43:1.0 57:1.0 83:1.0 84:1.0 85:1.0 106:1.0 107:1.0 108:1.0 109:1.0 308:1.0 309:1.0 370:1.0 372:1.0 374:1.0 375:1.0 376:1.0 377:1.0 585:1.0 4066:1.0 
0.008852178356841517 4:1.0 5:1.0 14:1.0 29:1.0 55:1.0 56:1.0 57:1.0 70:1.0 97:1.0 98:1.0 99:1.0 114:1.0 115:1.0 367:1.0 378:1.0 379:1.0 382:1.0 383:1.0 384:1.0 385:1.0 386:1.0 596:1.0 4067:1.0 
5.512981747839994E-4 6:1.0 14:1.0 19:1.0 23:1.0 29:1.0 43:1.0 57:1.0 85:1.0 99:1.0 294:1.0 295:1.0 376:1.0 377:1.0 640:1.0 1373:1.0 1379:1.0 1960:1.0 2319:1.0 4190:1.0 4191:1.0 4192:1.0 4193:1.0 4194:1.0 
0.0022508022737231744 2:1.0 14:1.0 45:1.0 46:1.0 70:1.0 85:1.0 99:1.0 306:1.0 367:1.0 382:1.0 401:1.0 402:1.0 421:1.0 422:1.0 686:1.0 687:1.0 4223:1.0 4224:1.0 4225:1.0 4226:1.0 4227:1.0 4228:1.0 4229:1.0 
7.280148919623179E-4 14:1.0 31:1.0 32:1.0 59:1.0 60:1.0 278:1.0 287:1.0 306:1.0 308:1.0 309:1.0 611:1.0 630:1.0 649:1.0 658:1.0 674:1.0 675:1.0 676:1.0 677:1.0 678:1.0 679:1.0 4533:1.0 4553:1.0 4554:1.0 
6.343464699945136E-4 2:1.0 8:1.0 9:1.0 14:1.0 45:1.0 46:1.0 47:1.0 87:1.0 88:1.0 286:1.0 298:1.0 367:1.0 649:1.0 707:1.0 708:1.0 709:1.0 711:1.0 712:1.0 713:1.0 714:1.0 715:1.0 716:1.0 4546:1.0 
0.009919669948156903 6:1.0 14:1.0 29:1.0 35:1.0 36:1.0 43:1.0 68:1.0 69:1.0 70:1.0 95:1.0 96:1.0 97:1.0 98:1.0 99:1.0 100:1.0 300:1.0 301:1.0 363:1.0 365:1.0 367:1.0 368:1.0 574:1.0 4582:1.0 
0.008175905116677358 14:1.0 19:1.0 41:1.0 42:1.0 43:1.0 57:1.0 83:1.0 84:1.0 85:1.0 106:1.0 107:1.0 108:1.0 109:1.0 308:1.0 309:1.0 370:1.0 372:1.0 374:1.0 375:1.0 376:1.0 377:1.0 585:1.0 4583:1.0 
0.008855264198332125 4:1.0 5:1.0 14:1.0 29:1.0 55:1.0 56:1.0 57:1.0 70:1.0 97:1.0 98:1.0 99:1.0 114:1.0 115:1.0 367:1.0 378:1.0 379:1.0 382:1.0 383:1.0 384:1.0 385:1.0 386:1.0 596:1.0 4584:1.0 
0.00952920173284025 14:1.0 25:1.0 26:1.0 29:1.0 33:1.0 47:1.0 55:1.0 56:1.0 61:1.0 99:1.0 306:1.0 367:1.0 382:1.0 391:1.0 560:1.0 890:1.0 1212:1.0 1255:1.0 1256:1.0 1460:1.0 2943:1.0 3812:1.0 4522:1.0 
0.001088627990666151 14:1.0 31:1.0 32:1.0 59:1.0 60:1.0 278:1.0 287:1.0 306:1.0 308:1.0 309:1.0 611:1.0 630:1.0 649:1.0 658:1.0 674:1.0 675:1.0 676:1.0 677:1.0 678:1.0 679:1.0 3367:1.0 4969:1.0 4970:1.0 
6.38923976923504E-4 2:1.0 8:1.0 9:1.0 14:1.0 45:1.0 46:1.0 47:1.0 87:1.0 88:1.0 286:1.0 298:1.0 367:1.0 649:1.0 707:1.0 708:1.0 709:1.0 711:1.0 712:1.0 713:1.0 714:1.0 715:1.0 716:1.0 4975:1.0 
0.009912588855746236 6:1.0 14:1.0 29:1.0 35:1.0 36:1.0 43:1.0 68:1.0 69:1.0 70:1.0 95:1.0 96:1.0 97:1.0 98:1.0 99:1.0 100:1.0 300:1.0 301:1.0 363:1.0 365:1.0 367:1.0 368:1.0 574:1.0 5011:1.0 
0.008180244935557754 14:1.0 19:1.0 41:1.0 42:1.0 43:1.0 57:1.0 83:1.0 84:1.0 85:1.0 106:1.0 107:1.0 108:1.0 109:1.0 308:1.0 309:1.0 370:1.0 372:1.0 374:1.0 375:1.0 376:1.0 377:1.0 585:1.0 5012:1.0 
0.008848324666994232 4:1.0 5:1.0 14:1.0 29:1.0 55:1.0 56:1.0 57:1.0 70:1.0 97:1.0 98:1.0 99:1.0 114:1.0 115:1.0 367:1.0 378:1.0 379:1.0 382:1.0 383:1.0 384:1.0 385:1.0 386:1.0 596:1.0 5013:1.0 
0.0017298895938844402 14:1.0 31:1.0 32:1.0 59:1.0 60:1.0 278:1.0 287:1.0 306:1.0 308:1.0 309:1.0 611:1.0 630:1.0 649:1.0 658:1.0 675:1.0 676:1.0 677:1.0 678:1.0 679:1.0 710:1.0 3341:1.0 4036:1.0 5158:1.0 
6.357290424231859E-4 2:1.0 8:1.0 9:1.0 14:1.0 45:1.0 46:1.0 47:1.0 87:1.0 88:1.0 286:1.0 298:1.0 367:1.0 649:1.0 707:1.0 708:1.0 709:1.0 711:1.0 712:1.0 713:1.0 714:1.0 715:1.0 716:1.0 5162:1.0 
2.802553667447292E-4 14:1.0 33:1.0 55:1.0 56:1.0 61:1.0 284:1.0 298:1.0 300:1.0 301:1.0 314:1.0 399:1.0 574:1.0 748:1.0 749:1.0 750:1.0 751:1.0 752:1.0 753:1.0 754:1.0 755:1.0 756:1.0 758:1.0 5165:1.0 
0.00679341944112537 14:1.0 31:1.0 32:1.0 33:1.0 108:1.0 109:1.0 284:1.0 294:1.0 295:1.0 306:1.0 382:1.0 401:1.0 402:1.0 433:1.0 611:1.0 788:1.0 789:1.0 790:1.0 791:1.0 792:1.0 793:1.0 794:1.0 5169:1.0 
0.009893517158201097 6:1.0 14:1.0 29:1.0 35:1.0 36:1.0 43:1.0 68:1.0 69:1.0 70:1.0 95:1.0 96:1.0 97:1.0 98:1.0 99:1.0 100:1.0 300:1.0 301:1.0 363:1.0 365:1.0 367:1.0 368:1.0 574:1.0 5198:1.0 
0.00817167936241405 14:1.0 19:1.0 41:1.0 42:1.0 43:1.0 57:1.0 83:1.0 84:1.0 85:1.0 106:1.0 107:1.0 108:1.0 109:1.0 308:1.0 309:1.0 370:1.0 372:1.0 374:1.0 375:1.0 376:1.0 377:1.0 585:1.0 5199:1.0 
0.008845118000802612 4:1.0 5:1.0 14:1.0 29:1.0 55:1.0 56:1.0 57:1.0 70:1.0 97:1.0 98:1.0 99:1.0 114:1.0 115:1.0 367:1.0 378:1.0 379:1.0 382:1.0 383:1.0 384:1.0 385:1.0 386:1.0 596:1.0 5200:1.0 
0.006622125956307922 14:1.0 17:1.0 29:1.0 33:1.0 59:1.0 60:1.0 85:1.0 99:1.0 287:1.0 292:1.0 298:1.0 306:1.0 563:1.0 1353:1.0 1354:1.0 2286:1.0 4157:1.0 4215:1.0 4226:1.0 5242:1.0 5243:1.0 5244:1.0 5245:1.0 
3.2636009373751E-4 2:1.0 14:1.0 33:1.0 43:1.0 47:1.0 72:1.0 73:1.0 99:1.0 292:1.0 298:1.0 306:1.0 367:1.0 574:1.0 1357:1.0 1361:1.0 2295:1.0 4162:1.0 4221:1.0 5246:1.0 5247:1.0 5248:1.0 5249:1.0 5250:1.0 
0.0011862099524326427 6:1.0 14:1.0 19:1.0 23:1.0 29:1.0 43:1.0 57:1.0 70:1.0 85:1.0 99:1.0 294:1.0 295:1.0 376:1.0 377:1.0 1401:1.0 1473:1.0 1955:1.0 2196:1.0 2286:1.0 3831:1.0 4187:1.0 5438:1.0 5439:1.0 
0.013519007769019757 14:1.0 31:1.0 32:1.0 57:1.0 70:1.0 85:1.0 99:1.0 298:1.0 306:1.0 374:1.0 376:1.0 377:1.0 393:1.0 394:1.0 412:1.0 413:1.0 2001:1.0 2328:1.0 4213:1.0 5454:1.0 5455:1.0 5456:1.0 5457:1.0 
0.01260734830901027 6:1.0 10:1.0 14:1.0 29:1.0 35:1.0 36:1.0 54:1.0 55:1.0 56:1.0 57:1.0 58:1.0 59:1.0 60:1.0 61:1.0 62:1.0 63:1.0 64:1.0 65:1.0 252:1.0 376:1.0 377:1.0 
0.003594702906748954 14:1.0 19:1.0 23:1.0 27:1.0 41:1.0 42:1.0 43:1.0 70:1.0 77:1.0 78:1.0 97:1.0 98:1.0 99:1.0 112:1.0 113:1.0 212:1.0 230:1.0 250:1.0 384:1.0 385:1.0 3642:1.0 5719:1.0 5720:1.0 
0.005733698815904696 14:1.0 45:1.0 46:1.0 47:1.0 85:1.0 108:1.0 109:1.0 292:1.0 348:1.0 367:1.0 384:1.0 385:1.0 399:1.0 401:1.0 402:1.0 412:1.0 413:1.0 414:1.0 415:1.0 416:1.0 417:1.0 418:1.0 1415:1.0 
0.004327804780238366 14:1.0 59:1.0 60:1.0 61:1.0 99:1.0 298:1.0 354:1.0 367:1.0 374:1.0 393:1.0 394:1.0 404:1.0 409:1.0 410:1.0 420:1.0 421:1.0 422:1.0 423:1.0 424:1.0 425:1.0 426:1.0 1419:1.0 1420:1.0 
8.109267889364815E-4 14:1.0 31:1.0 32:1.0 59:1.0 60:1.0 278:1.0 287:1.0 306:1.0 308:1.0 309:1.0 611:1.0 630:1.0 649:1.0 658:1.0 674:1.0 675:1.0 676:1.0 677:1.0 678:1.0 679:1.0 3275:1.0 3388:1.0 5765:1.0 
8.556668605750381E-4 2:1.0 8:1.0 9:1.0 14:1.0 45:1.0 46:1.0 47:1.0 87:1.0 88:1.0 286:1.0 298:1.0 367:1.0 649:1.0 707:1.0 708:1.0 709:1.0 711:1.0 712:1.0 713:1.0 714:1.0 715:1.0 716:1.0 3281:1.0 
0.010558904655621544 6:1.0 14:1.0 29:1.0 35:1.0 36:1.0 43:1.0 68:1.0 69:1.0 70:1.0 95:1.0 96:1.0 97:1.0 98:1.0 99:1.0 100:1.0 300:1.0 301:1.0 363:1.0 365:1.0 367:1.0 368:1.0 574:1.0 5792:1.0 
0.008147676455611928 14:1.0 19:1.0 41:1.0 42:1.0 43:1.0 57:1.0 83:1.0 84:1.0 85:1.0 106:1.0 107:1.0 108:1.0 109:1.0 308:1.0 309:1.0 370:1.0 372:1.0 374:1.0 375:1.0 376:1.0 377:1.0 585:1.0 5793:1.0 
0.008846425402624482 4:1.0 5:1.0 14:1.0 29:1.0 55:1.0 56:1.0 57:1.0 70:1.0 97:1.0 98:1.0 99:1.0 114:1.0 115:1.0 367:1.0 378:1.0 379:1.0 382:1.0 383:1.0 384:1.0 385:1.0 386:1.0 596:1.0 5794:1.0 
0.009970941273445144 6:1.0 10:1.0 14:1.0 23:1.0 33:1.0 41:1.0 42:1.0 43:1.0 70:1.0 85:1.0 99:1.0 306:1.0 367:1.0 368:1.0 548:1.0 1967:1.0 2011:1.0 2012:1.0 2066:1.0 2067:1.0 2068:1.0 2069:1.0 2070:1.0 
0.008348672910979118 6:1.0 8:1.0 9:1.0 10:1.0 14:1.0 29:1.0 30:1.0 31:1.0 32:1.0 33:1.0 34:1.0 35:1.0 36:1.0 37:1.0 38:1.0 39:1.0 40:1.0 
0.008194133999104361 6:1.0 8:1.0 9:1.0 10:1.0 14:1.0 29:1.0 31:1.0 32:1.0 33:1.0 70:1.0 99:1.0 126:1.0 127:1.0 198:1.0 238:1.0 271:1.0 280:1.0 284:1.0 322:1.0 323:1.0 324:1.0 325:1.0 326:1.0 
0.032706499701110364 6:1.0 14:1.0 27:1.0 29:1.0 35:1.0 36:1.0 57:1.0 59:1.0 60:1.0 61:1.0 99:1.0 207:1.0 277:1.0 283:1.0 292:1.0 294:1.0 295:1.0 332:1.0 333:1.0 334:1.0 335:1.0 336:1.0 337:1.0 
0.002424758734524817 14:1.0 31:1.0 32:1.0 33:1.0 70:1.0 97:1.0 98:1.0 99:1.0 287:1.0 343:1.0 376:1.0 377:1.0 391:1.0 393:1.0 394:1.0 404:1.0 405:1.0 406:1.0 407:1.0 408:1.0 409:1.0 410:1.0 411:1.0 
0.015629266209726097 14:1.0 17:1.0 19:1.0 33:1.0 41:1.0 42:1.0 47:1.0 74:1.0 85:1.0 284:1.0 292:1.0 294:1.0 295:1.0 298:1.0 548:1.0 562:1.0 1204:1.0 1456:1.0 2935:1.0 3339:1.0 3809:1.0 4520:1.0 4521:1.0 
0.012386764113036217 14:1.0 29:1.0 33:1.0 47:1.0 55:1.0 56:1.0 61:1.0 99:1.0 287:1.0 298:1.0 300:1.0 301:1.0 306:1.0 560:1.0 573:1.0 678:1.0 679:1.0 1212:1.0 1460:1.0 2943:1.0 3342:1.0 3812:1.0 4522:1.0 
0.0010339638330726672 14:1.0 31:1.0 32:1.0 59:1.0 60:1.0 278:1.0 287:1.0 306:1.0 308:1.0 309:1.0 611:1.0 630:1.0 649:1.0 658:1.0 674:1.0 675:1.0 676:1.0 677:1.0 678:1.0 679:1.0 4554:1.0 5913:1.0 5914:1.0 
0.0011585528941910847 2:1.0 8:1.0 9:1.0 14:1.0 45:1.0 46:1.0 47:1.0 87:1.0 88:1.0 286:1.0 298:1.0 367:1.0 649:1.0 707:1.0 708:1.0 709:1.0 711:1.0 712:1.0 713:1.0 714:1.0 715:1.0 716:1.0 5921:1.0 
6.932862418333938E-4 14:1.0 33:1.0 55:1.0 56:1.0 61:1.0 284:1.0 298:1.0 300:1.0 301:1.0 314:1.0 399:1.0 574:1.0 748:1.0 749:1.0 750:1.0 751:1.0 752:1.0 753:1.0 754:1.0 755:1.0 756:1.0 757:1.0 758:1.0 
0.0071903723493340075 14:1.0 31:1.0 32:1.0 33:1.0 108:1.0 109:1.0 284:1.0 294:1.0 295:1.0 306:1.0 382:1.0 401:1.0 402:1.0 433:1.0 611:1.0 787:1.0 788:1.0 789:1.0 790:1.0 791:1.0 792:1.0 793:1.0 794:1.0 
0.02259310677161629 14:1.0 31:1.0 32:1.0 33:1.0 35:1.0 36:1.0 61:1.0 99:1.0 238:1.0 284:1.0 292:1.0 384:1.0 385:1.0 441:1.0 442:1.0 596:1.0 611:1.0 967:1.0 968:1.0 969:1.0 970:1.0 971:1.0 972:1.0 
0.01805770987855654 14:1.0 55:1.0 56:1.0 59:1.0 60:1.0 61:1.0 292:1.0 294:1.0 295:1.0 306:1.0 367:1.0 401:1.0 402:1.0 463:1.0 464:1.0 611:1.0 630:1.0 979:1.0 980:1.0 981:1.0 982:1.0 983:1.0 984:1.0 
0.003120171855439411 14:1.0 23:1.0 45:1.0 46:1.0 47:1.0 74:1.0 367:1.0 368:1.0 399:1.0 414:1.0 451:1.0 452:1.0 734:1.0 735:1.0 1027:1.0 1028:1.0 1029:1.0 1030:1.0 1031:1.0 1032:1.0 1033:1.0 1034:1.0 1035:1.0 
1.6645183619614897E-4 6:1.0 14:1.0 59:1.0 60:1.0 61:1.0 374:1.0 375:1.0 376:1.0 377:1.0 404:1.0 423:1.0 463:1.0 464:1.0 743:1.0 744:1.0 1036:1.0 1037:1.0 1038:1.0 1039:1.0 1040:1.0 1041:1.0 1042:1.0 1043:1.0 
0.009915492188102566 14:1.0 17:1.0 19:1.0 45:1.0 46:1.0 47:1.0 292:1.0 376:1.0 377:1.0 384:1.0 385:1.0 451:1.0 452:1.0 453:1.0 734:1.0 735:1.0 828:1.0 1129:1.0 1130:1.0 1131:1.0 1132:1.0 1133:1.0 1134:1.0 
0.009738723722665368 14:1.0 29:1.0 33:1.0 59:1.0 60:1.0 61:1.0 298:1.0 367:1.0 384:1.0 385:1.0 393:1.0 394:1.0 463:1.0 464:1.0 743:1.0 744:1.0 835:1.0 1135:1.0 1136:1.0 1137:1.0 1138:1.0 1139:1.0 1140:1.0 
2.3603121209751044E-4 10:1.0 12:1.0 13:1.0 14:1.0 19:1.0 21:1.0 22:1.0 23:1.0 41:1.0 42:1.0 43:1.0 44:1.0 45:1.0 46:1.0 47:1.0 49:1.0 50:1.0 99:1.0 341:1.0 343:1.0 742:1.0 1237:1.0 1238:1.0 
0.01056048316151162 6:1.0 14:1.0 29:1.0 35:1.0 36:1.0 43:1.0 68:1.0 69:1.0 70:1.0 95:1.0 96:1.0 97:1.0 98:1.0 99:1.0 100:1.0 300:1.0 301:1.0 363:1.0 365:1.0 367:1.0 368:1.0 574:1.0 5946:1.0 
0.008698610911990767 14:1.0 19:1.0 41:1.0 42:1.0 43:1.0 57:1.0 83:1.0 84:1.0 85:1.0 106:1.0 107:1.0 108:1.0 109:1.0 308:1.0 309:1.0 370:1.0 372:1.0 374:1.0 375:1.0 376:1.0 377:1.0 585:1.0 5947:1.0 
0.00938338402996585 4:1.0 5:1.0 14:1.0 29:1.0 55:1.0 56:1.0 57:1.0 70:1.0 97:1.0 98:1.0 99:1.0 114:1.0 115:1.0 367:1.0 378:1.0 379:1.0 382:1.0 383:1.0 384:1.0 385:1.0 386:1.0 596:1.0 5948:1.0 
0.0012979137063808522 6:1.0 8:1.0 9:1.0 14:1.0 17:1.0 19:1.0 29:1.0 33:1.0 47:1.0 85:1.0 99:1.0 367:1.0 374:1.0 1488:1.0 1983:1.0 1984:1.0 2121:1.0 2122:1.0 2134:1.0 2135:1.0 4880:1.0 4889:1.0 4890:1.0 
0.008580329137344675 14:1.0 19:1.0 21:1.0 22:1.0 29:1.0 33:1.0 43:1.0 47:1.0 61:1.0 99:1.0 367:1.0 374:1.0 382:1.0 1496:1.0 1986:1.0 1987:1.0 1993:1.0 2126:1.0 2127:1.0 2139:1.0 2140:1.0 4891:1.0 4892:1.0 
0.0011098384623194851 2:1.0 14:1.0 27:1.0 33:1.0 61:1.0 292:1.0 294:1.0 295:1.0 296:1.0 298:1.0 606:1.0 640:1.0 729:1.0 730:1.0 774:1.0 775:1.0 2600:1.0 2601:1.0 2602:1.0 2603:1.0 2604:1.0 2605:1.0 2606:1.0 
0.015112323433629652 6:1.0 14:1.0 17:1.0 19:1.0 29:1.0 70:1.0 97:1.0 98:1.0 99:1.0 230:1.0 287:1.0 289:1.0 290:1.0 314:1.0 1609:1.0 1610:1.0 1638:1.0 1639:1.0 1655:1.0 2657:1.0 2658:1.0 2659:1.0 2660:1.0 
0.020875943668233775 14:1.0 19:1.0 29:1.0 33:1.0 43:1.0 85:1.0 108:1.0 109:1.0 235:1.0 292:1.0 294:1.0 295:1.0 1564:1.0 1565:1.0 1620:1.0 1621:1.0 1650:1.0 1651:1.0 1664:1.0 2661:1.0 2662:1.0 2663:1.0 2664:1.0 
0.004159702051318087 14:1.0 29:1.0 43:1.0 47:1.0 57:1.0 99:1.0 238:1.0 298:1.0 300:1.0 301:1.0 563:1.0 1574:1.0 1575:1.0 1576:1.0 1631:1.0 1632:1.0 1660:1.0 1661:1.0 1672:1.0 2665:1.0 2666:1.0 2667:1.0 2668:1.0 
0.010944990964664657 2:1.0 14:1.0 31:1.0 32:1.0 33:1.0 306:1.0 367:1.0 374:1.0 382:1.0 391:1.0 451:1.0 452:1.0 640:1.0 658:1.0 1577:1.0 1582:1.0 1591:1.0 1687:1.0 1688:1.0 1930:1.0 2697:1.0 2698:1.0 2699:1.0 
-0.2288386046637251 6:1.0 14:1.0 29:1.0 31:1.0 32:1.0 33:1.0 35:1.0 36:1.0 70:1.0 97:1.0 98:1.0 99:1.0 230:1.0 292:1.0 294:1.0 295:1.0 314:1.0 363:1.0 364:1.0 365:1.0 366:1.0 367:1.0 368:1.0 
-0.1722659518482193 19:1.0 41:1.0 42:1.0 43:1.0 45:1.0 46:1.0 47:1.0 85:1.0 108:1.0 109:1.0 235:1.0 298:1.0 300:1.0 301:1.0 369:1.0 370:1.0 371:1.0 372:1.0 373:1.0 374:1.0 375:1.0 376:1.0 377:1.0 
-0.17519173390717985 29:1.0 55:1.0 56:1.0 57:1.0 59:1.0 60:1.0 61:1.0 99:1.0 238:1.0 306:1.0 308:1.0 309:1.0 367:1.0 369:1.0 378:1.0 379:1.0 380:1.0 381:1.0 382:1.0 383:1.0 384:1.0 385:1.0 386:1.0 
